<?xml version='1.0' encoding='utf-8'?>
<PMML version="4.2" xmlns="http://www.dmg.org/PMML-4_2"><Header><Timestamp>2018-06-21 03:21:45.735163</Timestamp></Header><DataDictionary><DataField dataType="double" name="class" optype="continuous" /><DataField dataType="double" name="x0" optype="continuous" /></DataDictionary><RegressionModel functionName="regression"><MiningSchema><MiningField name="class" usageType="predicted" /><MiningField name="x0" usageType="active" /></MiningSchema><RegressionTable intercept="2.999999999999993"><NumericPredictor coefficient="5.000000000000002" name="x0" /></RegressionTable></RegressionModel></PMML>